  -1.6906715e+03
   2.5740141e+02
   3.6471678e+02
   3.2627460e+02
   2.8507486e+02
   2.8111757e+02
   3.5540272e+02
   2.7993032e+02
   2.4270036e+02
   1.0571284e+02
   2.2096777e+02
   2.4846514e+02
   1.9320496e+02
   1.1218722e+02
   1.1641192e+02
   9.4879071e+01
   2.1358866e+02
   8.2540702e+01
   1.1373518e+02
  -8.6827890e+01
   9.0851481e+01
   7.6773295e+01
   3.5937554e+01
   4.7344258e+01
  -1.6700659e+02
  -2.0311500e+02
  -4.3980967e+01
   4.6395513e+01
  -3.9855623e+00
  -5.6124194e+01
  -1.0702038e+02
  -4.6674123e+01
   4.4914578e+01
  -1.8325428e+02
  -1.7618069e+02
  -1.0486465e+02
  -1.7330617e+02
  -2.2550525e+02
  -2.2446188e+02
  -1.6917607e+02
  -2.1464782e+02
  -1.7987712e+02
  -1.8586397e+02
  -1.6660838e+02
  -1.7611035e+02
  -2.1636987e+02
  -2.2038695e+02
  -1.3216159e+02
  -2.4069378e+02
  -2.3598352e+02
  -1.1503082e+02
  -2.8083568e+02
  -1.8239810e+02
  -1.7871806e+02
  -9.5795589e+01
  -2.7763067e+02
  -2.2222331e+02
  -1.7857350e+02
  -3.1268125e+02
  -1.8354655e+02
  -1.4616941e+02
  -1.9254982e+02
  -2.0868779e+02
  -7.5583320e+01
   4.2763598e+01
  -5.4647040e+01
   2.6184767e+01
   2.4125902e+02
   2.4357571e+02
   5.1713485e+02
   9.7193644e+02
   1.6739805e+03
   2.8112669e+03
   3.8347959e+03
   5.2295672e+03
   6.8115810e+03
   8.1748373e+03
   9.8843360e+03
   1.1667077e+04
   1.3481061e+04
   1.5298287e+04
   1.7154755e+04
   1.9070466e+04
   2.1393419e+04
   2.3812615e+04
   2.6392053e+04
   2.8964734e+04
   3.1707657e+04
   3.3747823e+04
   3.6524231e+04
   3.8558881e+04
   4.0788774e+04
   4.3093910e+04
   4.5124287e+04
   4.6677908e+04
   4.8469770e+04
   4.9554876e+04
   5.1269223e+04
   5.1869813e+04
   6.1047646e+04
   5.4001721e+04
   5.4726038e+04
   5.4572598e+04
   5.3353400e+04
   5.2677445e+04
   5.1278732e+04
   4.9675261e+04
   4.7944033e+04
   4.5728048e+04
   4.4168305e+04
   4.2357804e+04
   3.9827546e+04
   3.7106530e+04
   3.4510757e+04
   3.1798226e+04
   2.8554937e+04
   2.6197892e+04
   2.3424088e+04
   2.0426527e+04
   1.7965208e+04
   1.5528132e+04
   1.3580298e+04
   1.1379707e+04
   9.6593581e+03
   8.0102517e+03
   6.1623877e+03
   4.9097661e+03
   3.8663871e+03
   2.7582504e+03
   1.8743562e+03
   1.2817044e+03
   8.3429512e+02
   3.5412825e+02
   1.4120382e+02
   1.3952184e+02
  -8.3917703e+01
  -1.5611480e+02
  -1.3406945e+02
  -1.2778166e+02
  -2.1825142e+02
  -2.9647874e+02
  -1.3646361e+02
  -2.5820604e+02
  -1.4970603e+02
  -2.0696357e+02
  -1.5397866e+02
  -1.8775132e+02
  -2.9428153e+02
  -1.1956929e+02
  -2.4161461e+02
  -1.8841749e+02
  -2.5977918e+01
  -1.1629590e+02
  -1.8837145e+02
  -2.3520455e+02
  -6.6795201e+01
  -1.9814341e+02
  -2.1324918e+02
  -1.5811250e+02
  -8.6733376e+01
  -2.0611181e+02
  -1.1124780e+02
  -1.6814134e+02
  -1.4679244e+02
  -7.5201099e+01
  -1.5436731e+02
  -3.1291079e+01
  -1.9897240e+02
  -5.8411281e+01
  -1.1660772e+02
  -1.4956171e+02
  -1.0927325e+02
  -4.6742355e+01
   4.1030987e+01
   3.3046774e+01
   5.7305005e+01
  -6.5194320e+01
  -8.9451201e+01
  -2.4465638e+01
  -9.2237630e+01
   4.3232822e+01
   1.4094572e+02
   1.0490106e+02
   8.6098844e+01
   1.3853907e+02
   1.4221746e+01
   1.4314686e+02
   6.3314426e+01
   2.2272443e+02
   2.9337688e+02
   1.6527178e+02
   3.2540912e+02
   2.2678890e+02
   2.3241113e+02
   2.7027580e+02
   3.5338291e+02
   2.9073247e+02
   2.3632448e+02
   3.3615893e+02
  -1.9747642e+03
