  -1.3541487e+03
   4.2356893e+02
   2.2785056e+02
   2.1469622e+02
   2.5710591e+02
   1.5607962e+02
   2.8561736e+02
   2.5071912e+02
   2.3138491e+02
   1.1661473e+02
  -5.9143173e-01
   1.5676643e+02
   5.7688328e+01
   1.2517425e+02
   9.3224190e+01
  -4.6161840e+01
   1.3001616e+02
   7.5758178e+01
   1.6806423e+02
  -1.0806570e+02
   1.9736840e+02
   8.8366523e+01
  -4.4071326e+01
  -1.6945149e+01
  -5.3254946e+01
   4.2999282e+01
   2.5817536e+01
   1.5199817e+01
  -4.6853878e+01
  -4.3343546e+01
  -1.2926919e+02
  -1.0863080e+02
  -1.8642840e+02
  -1.0366196e+02
  -4.9331499e+01
  -8.1437012e+01
  -1.2797850e+02
  -2.8955961e+01
  -1.1636940e+02
  -2.0821881e+02
  -1.2350419e+02
  -1.0522555e+02
  -9.5382881e+01
  -1.1997619e+02
  -2.8800547e+02
   2.1529278e+01
  -2.1837195e+02
  -2.5670915e+02
  -1.3948233e+02
  -1.2169148e+02
  -9.6336609e+01
  -1.6741771e+02
  -2.4993478e+02
  -1.4688783e+02
  -6.5276852e+01
  -1.3910185e+02
  -1.2136282e+02
  -1.0059764e+01
  -1.9319268e+02
  -1.8476158e+02
  -6.0766443e+01
  -1.3220728e+02
  -2.0308410e+02
  -1.6239689e+02
   1.3854347e+01
   1.6669609e+01
  -3.3951103e+01
  -5.7007790e+01
  -7.2500450e+01
  -1.7429085e+01
   1.1206307e+01
  -6.9594276e+01
   3.9169167e+01
  -1.0350336e+02
   4.1388130e+01
  -7.0156350e+01
  -6.3136803e+01
   1.4844677e+02
   1.4759437e+02
  -1.5969401e+02
   6.7581640e+01
   1.5442132e+02
   1.7882502e+02
   1.9979274e+02
   3.9432450e+02
   6.9242028e+02
   1.1640801e+03
   2.0743039e+03
   3.6810918e+03
   6.6394436e+03
   1.1928360e+04
   2.0386839e+04
   3.2353883e+04
   4.9529491e+04
   7.1625663e+04
   9.5778399e+04
   1.1454670e+05
   1.2170856e+05
   1.1675299e+05
   1.1518098e+05
   8.3551540e+04
   6.5944660e+04
   5.0764344e+04
   3.8697593e+04
   2.7934405e+04
   1.9638781e+04
   1.2990722e+04
   8.3682259e+03
   5.1552943e+03
   2.9909267e+03
   1.5901231e+03
   9.3188359e+02
   4.5220807e+02
   1.4009657e+02
   1.9954910e+02
   9.1565656e+01
   1.2914624e+02
  -1.6709159e+01
   2.6999473e+01
   9.3272130e+01
  -1.2891187e+01
   4.1509522e+01
  -3.9525743e+01
  -1.9996982e+01
   1.5109580e+02
  -1.5624738e+02
  -7.7026545e+01
   1.1758319e+01
  -9.3892791e+01
  -4.8979875e+01
   6.2497066e+01
  -8.1461966e+01
  -2.8856973e+01
  -4.9687954e+01
  -1.8695491e+02
  -4.6657838e+01
  -1.8879674e+02
  -1.5037162e+02
  -1.4838247e+02
  -1.7282930e+02
  -1.0871210e+02
  -1.5603087e+02
  -1.4978562e+02
  -1.2097634e+02
  -7.0603038e+01
  -4.4665709e+01
  -1.0916435e+02
  -6.9098973e+01
  -1.7046957e+02
  -2.7827613e+02
  -2.5251868e+02
  -1.7719719e+02
  -2.0731168e+02
  -1.1986215e+02
  -8.2848584e+01
  -6.6270996e+01
  -1.9712938e+02
  -1.2942374e+02
  -1.4515408e+02
   2.4679613e+01
  -1.1192267e+02
  -6.9960928e+01
  -1.9843516e+02
  -1.0334537e+02
  -1.5269155e+02
  -5.4473699e+01
  -1.1869183e+02
  -7.4345930e+01
  -1.2043601e+02
  -7.1962057e+01
  -7.7924082e+01
  -1.2322081e+01
  -1.2315605e+02
  -2.7426001e+01
  -3.2131923e+01
  -2.6273818e+01
  -8.5168807e-01
  -3.8655320e+00
   9.8684650e+01
   5.4798858e+01
  -1.1522909e+01
  -1.0528065e+02
   1.4052564e+02
   2.3989595e+02
  -6.2169716e+01
   1.6632865e+02
   2.3391035e+01
   1.3501745e+02
   1.7720789e+02
   1.2396236e+02
   2.7128085e+02
   1.2716337e+02
   2.4260991e+02
   3.0262048e+02
   2.3119507e+02
   2.6733370e+02
   2.4703634e+02
   2.6130302e+02
   3.4413371e+02
  -1.3964716e+03
