  -3.0475988e+03
   7.1925162e+02
   4.9102908e+02
   6.2173355e+02
   6.1336504e+02
   3.9992354e+02
   4.4840906e+02
   3.6482159e+02
   4.1516113e+02
   3.0542769e+02
   2.0762125e+02
   3.2374184e+02
   1.8178943e+02
   2.7676404e+02
   3.2466566e+02
   1.6549430e+02
   1.9324995e+02
   2.1993261e+02
   7.6542286e+01
   2.1707898e+02
   1.0354268e+02
  -1.3606661e+02
   9.8251123e+01
  -1.7504134e+01
   1.1667622e+01
  -1.4223361e+02
  -1.5620783e+02
  -1.2550295e+00
   2.4624780e+01
  -1.4056840e+02
  -6.4834561e+01
  -4.7173711e+01
  -1.8658585e+02
  -1.2807097e+02
  -1.7662908e+02
  -8.2601783e+00
  -8.8964262e+01
  -1.8974133e+02
  -1.6959139e+02
  -3.4651443e+02
  -4.0051046e+02
   2.4205219e+00
  -2.3272148e+02
  -2.7593647e+02
  -1.6922445e+02
  -4.1358541e+02
  -2.4401936e+02
  -3.8052630e+02
  -1.4410622e+02
  -4.7375913e+02
  -4.2748502e+02
  -4.2928391e+02
  -1.6915578e+02
  -3.1710063e+02
  -3.5711848e+02
  -2.8420930e+02
  -4.7637312e+02
  -2.1360992e+02
  -5.5919712e+01
  -2.4130249e+02
  -4.2975825e+02
  -2.8928700e+02
  -3.2288874e+02
  -3.8956346e+02
  -2.4531117e+02
  -2.5913186e+02
  -3.5102554e+02
  -2.4999221e+02
  -8.4031868e+01
  -1.7514451e+02
  -1.0833014e+02
  -9.0588754e+01
  -1.3692036e+02
  -4.3249444e+00
  -1.5080252e+02
   2.4646919e+01
  -6.7976630e+01
   2.3832684e+02
   3.7555731e+02
   1.4171481e+02
   1.5479931e+02
   3.9581083e+02
   1.0407494e+03
   1.4946149e+03
   2.6474075e+03
   4.3501270e+03
   7.4767736e+03
   1.2374347e+04
   2.0088848e+04
   3.0852275e+04
   4.5384630e+04
   6.2719912e+04
   7.9805120e+04
   9.5538256e+04
   1.0785732e+05
   1.1463531e+05
   1.1681323e+05
   1.1552207e+05
   1.1180384e+05
   1.1910654e+05
   9.5915162e+04
   8.6990714e+04
   7.8599193e+04
   6.8878599e+04
   6.0517931e+04
   5.1945191e+04
   4.3830378e+04
   3.7080492e+04
   2.9615533e+04
   2.3695501e+04
   1.8882396e+04
   1.4635218e+04
   1.0893967e+04
   8.1366425e+03
   5.7512454e+03
   4.0627754e+03
   3.0452324e+03
   1.8586164e+03
   1.2929274e+03
   1.0911654e+03
   6.1533048e+02
   2.8342254e+02
   1.7844161e+02
  -9.8612314e+01
  -9.0739221e+01
   3.4060886e+01
  -8.0211993e+01
  -7.5557859e+01
  -3.0976712e+01
  -2.5446855e+02
  -1.3803338e+02
  -2.1667119e+02
  -2.4438199e+02
  -2.5516578e+02
  -1.3502255e+02
   2.2047693e+01
  -5.9955053e+01
  -2.2803079e+02
  -3.2117950e+02
  -3.9040121e+02
  -2.2969590e+02
  -3.3406358e+02
  -1.9650425e+02
  -4.0401790e+02
  -2.7660454e+02
  -3.8326416e+02
  -3.3599678e+02
  -3.2380237e+02
  -2.9968096e+02
  -4.4663253e+02
  -1.9765709e+02
  -2.5875464e+02
  -2.9992517e+02
  -3.7116869e+02
  -4.2548519e+02
  -1.8887468e+02
  -2.7033716e+02
  -3.4987263e+02
  -1.2248108e+02
  -3.6916251e+02
  -8.4916939e+01
  -1.2374435e+02
  -2.6564475e+02
  -5.0561813e+02
  -2.2966450e+02
  -1.0878386e+02
  -2.3797621e+02
  -1.8124154e+02
  -4.9579856e+01
  -1.4799116e+02
  -1.1547545e+02
  -2.0803273e+02
   3.7337007e+01
  -1.1136624e+02
   1.0857518e+01
  -9.9170597e-01
  -2.6913917e+01
   3.6090886e+01
  -7.7977298e+01
  -8.9118469e+01
   1.1066737e+02
   2.7538023e+02
   9.1020100e+01
   2.8658698e+02
   1.2808088e+02
   1.4150179e+02
   2.8484971e+02
   2.3312465e+02
   3.0132660e+02
   4.9345556e+02
   5.8251154e+02
   2.8349453e+02
   4.8040453e+02
   4.6724155e+02
   5.5500558e+02
   4.0069662e+02
   3.9231468e+02
   5.6185975e+02
   6.1033183e+02
  -3.1282691e+03
