  -5.1551343e+03
   1.1048249e+03
   9.7445026e+02
   6.8274194e+02
   6.4769989e+02
   9.5032412e+02
   5.1661463e+02
   4.3957141e+02
   6.8119447e+02
   5.6648381e+02
   6.4943943e+02
   5.7606132e+02
   4.0834949e+02
   3.7830393e+02
   3.8592465e+02
   3.0621165e+02
   3.3516493e+02
   1.6278448e+02
   6.3070311e+01
   1.0302242e+02
   3.2564080e+02
   1.6292546e+02
  -9.3123604e+01
  -1.9250639e+02
  -1.6122290e+02
  -1.7927313e+02
  -9.0657090e+01
  -2.7937477e+02
  -1.9542617e+02
   9.6188702e+01
  -5.1530147e+01
  -3.3058272e+02
  -2.7796901e+02
  -1.9568903e+02
  -9.4742774e+01
  -4.9113024e+02
  -4.9785143e+02
  -5.3690634e+02
  -4.2029497e+02
  -4.6801733e+02
  -3.9907341e+02
  -4.7446321e+02
  -6.8918674e+02
  -6.6124399e+02
  -6.0163497e+02
  -3.7035966e+02
  -3.6341808e+02
  -4.0581023e+02
  -5.8253609e+02
  -4.3759568e+02
  -4.5198899e+02
  -4.4071603e+02
  -5.0377679e+02
  -2.9217127e+02
  -5.6289948e+02
  -3.5596140e+02
  -6.3335706e+02
  -5.4408643e+02
  -3.6814953e+02
  -5.3554635e+02
  -3.6727689e+02
  -4.3234116e+02
  -1.3873915e+02
  -5.5470866e+01
  -2.5753630e+02
   2.0006454e+02
   3.7933165e+02
   6.7626505e+02
   1.5398647e+03
   2.7911307e+03
   4.5910629e+03
   7.1346614e+03
   1.0538926e+04
   1.4241857e+04
   1.8218455e+04
   2.2806718e+04
   2.7026648e+04
   3.1509244e+04
   3.6402507e+04
   4.1234435e+04
   4.5949030e+04
   5.1955292e+04
   5.6846219e+04
   6.2373813e+04
   6.8692073e+04
   7.5134999e+04
   8.0774592e+04
   8.6999851e+04
   9.1790776e+04
   9.6419368e+04
   1.0019663e+05
   1.0458755e+05
   1.0853614e+05
   1.1201440e+05
   1.1520332e+05
   1.1810391e+05
   1.2041116e+05
   1.2351009e+05
   1.2497767e+05
   1.4409693e+05
   1.2690385e+05
   1.2669944e+05
   1.2597969e+05
   1.2409061e+05
   1.2143319e+05
   1.1884845e+05
   1.1548536e+05
   1.1227895e+05
   1.0885520e+05
   1.0468012e+05
   9.9204699e+04
   9.3910948e+04
   8.8772864e+04
   8.3198446e+04
   7.6068695e+04
   6.9603609e+04
   6.2668190e+04
   5.6178438e+04
   5.0058351e+04
   4.2849931e+04
   3.8056177e+04
   3.2715089e+04
   2.8128668e+04
   2.3667913e+04
   1.9421824e+04
   1.5678401e+04
   1.1936645e+04
   9.1015552e+03
   6.4261315e+03
   4.4063741e+03
   2.5912829e+03
   1.5418580e+03
   9.9409939e+02
   3.4800705e+02
   2.9158099e+02
   4.5821210e+01
  -2.3227230e+02
  -3.1769953e+02
  -3.3946048e+02
  -4.0655515e+02
  -3.8598355e+02
  -4.2474567e+02
  -4.0384152e+02
  -4.2227109e+02
  -4.5503438e+02
  -7.8213140e+02
  -7.1656213e+02
  -3.8032659e+02
  -6.3742478e+02
  -5.0685669e+02
  -2.4162232e+02
  -3.8872167e+02
  -5.6815475e+02
  -6.2592155e+02
  -4.7702207e+02
  -5.0445632e+02
  -6.0022429e+02
  -4.8232598e+02
  -5.5576140e+02
  -3.8453054e+02
  -3.2563340e+02
  -4.9906998e+02
  -5.2484029e+02
  -2.6794433e+02
  -4.2038208e+02
  -4.2415356e+02
  -2.5925876e+02
  -3.1369769e+02
  -2.0347033e+02
  -3.5457671e+02
  -2.4016800e+01
   1.9209383e+01
  -2.3089816e+02
  -1.9233942e+02
   5.3885591e+01
   7.1776881e+01
  -8.6655525e+00
   1.9558291e+01
   2.3544841e+02
   2.4900481e+02
   1.9227482e+01
  -7.3883567e+01
   7.2671660e+01
   1.8989316e+02
   3.5378095e+02
   7.4335003e+01
   4.2855534e+02
   4.3044195e+02
   5.1399484e+02
   5.0221400e+02
   5.8209945e+02
   7.2365116e+02
   6.6486916e+02
   7.8375343e+02
   5.7730398e+02
   7.6652081e+02
   6.8640391e+02
   1.0339533e+03
   9.5816895e+02
  -4.9249491e+03
