  -8.6944099e+03
   1.6662279e+03
   1.6855060e+03
   1.6714245e+03
   1.3339833e+03
   1.6961825e+03
   1.2400220e+03
   1.3395018e+03
   1.3046220e+03
   1.1173826e+03
   1.0817835e+03
   6.4782474e+02
   3.7050634e+02
   4.6282828e+02
   3.4479057e+02
   4.8539321e+02
   2.6063619e+02
   1.3651953e+02
   3.5304320e+02
   8.2420723e+02
   5.1101160e+02
   1.6045632e+02
  -1.7045861e+02
   9.1266807e+01
   2.8363257e+02
  -1.1836132e+02
  -7.1714866e+01
  -1.9242806e+02
  -1.3950091e+02
  -2.9893342e+02
  -1.4372557e+02
  -2.3787738e+02
  -2.4038884e+02
  -2.7525995e+02
  -4.4549072e+02
  -5.0608114e+02
  -6.6203121e+02
  -9.1734094e+02
  -6.4401032e+02
  -9.2403935e+02
  -5.9942804e+02
  -6.1217637e+02
  -6.7328436e+02
  -6.2375201e+02
  -6.7557930e+02
  -8.7076625e+02
  -8.7631285e+02
  -8.0521911e+02
  -7.6048501e+02
  -5.7511058e+02
  -9.3309579e+02
  -8.1144065e+02
  -7.6814517e+02
  -9.8620935e+02
  -8.8763317e+02
  -8.9741665e+02
  -8.4655978e+02
  -1.0790626e+03
  -5.4592500e+02
  -1.3941471e+03
  -8.6372883e+02
  -1.2506702e+03
  -8.7897127e+02
  -7.0263197e+02
  -8.2965233e+02
  -5.1903234e+02
  -5.9977199e+02
  -2.5187131e+02
  -4.2233027e+02
  -6.2014889e+02
  -3.6432716e+02
  -5.3386509e+02
  -2.1876266e+02
   4.0980107e+01
  -1.5363678e+02
   2.2386689e+01
  -6.6949499e+01
   2.4135466e+02
   5.3629917e+02
   5.7688402e+02
   1.1421092e+03
   1.6079748e+03
   2.7894807e+03
   3.8866269e+03
   6.4734135e+03
   1.1223840e+04
   1.8105908e+04
   2.9316615e+04
   4.7588963e+04
   7.2563952e+04
   1.0629358e+05
   1.4511385e+05
   1.8805076e+05
   2.2645431e+05
   2.5710650e+05
   2.7601733e+05
   2.8536580e+05
   2.8448991e+05
   2.7473966e+05
   2.9667605e+05
   2.4190309e+05
   2.2150676e+05
   1.9988507e+05
   1.7823202e+05
   1.5737962e+05
   1.3692385e+05
   1.1743673e+05
   9.8652241e+04
   8.1902396e+04
   6.6528191e+04
   5.2277627e+04
   4.0512703e+04
   3.1387419e+04
   2.3436776e+04
   1.6385773e+04
   1.2695410e+04
   8.5896876e+03
   5.8856056e+03
   4.2381640e+03
   2.8713628e+03
   1.7252018e+03
   1.4496813e+03
   4.9680106e+02
   2.4256118e+02
   2.3396166e+02
  -4.5699752e+02
  -2.4331636e+02
  -5.8299484e+02
  -5.9003298e+02
  -9.3430773e+01
  -6.1618822e+02
  -4.9230531e+02
  -7.2578206e+02
  -7.6961847e+02
  -6.6181452e+02
  -5.4437023e+02
  -4.2528559e+02
  -8.7056061e+02
  -6.8419528e+02
  -7.9518960e+02
  -5.4254357e+02
  -5.3825720e+02
  -8.8433048e+02
  -1.2017634e+03
  -1.0675560e+03
  -9.7870823e+02
  -9.2322012e+02
  -1.1070917e+03
  -7.8832286e+02
  -9.2991371e+02
  -9.2286421e+02
  -7.5917437e+02
  -7.1984418e+02
  -9.4087364e+02
  -8.4126275e+02
  -7.6201152e+02
  -1.0951199e+03
  -6.5158801e+02
  -1.0484157e+03
  -1.0126031e+03
  -9.1015015e+02
  -7.9905683e+02
  -7.7832317e+02
  -6.3494916e+02
  -4.3793480e+02
  -2.9280095e+01
  -3.4598504e+02
  -2.4704964e+02
  -3.8247390e+02
  -5.0825781e+02
  -3.7340137e+02
  -3.9990458e+02
  -2.2776745e+02
  -1.2298996e+02
  -2.5057214e+02
  -1.0513960e+01
  -6.8815437e+01
  -2.6476568e+01
   3.8502649e+01
   2.4512221e+02
   2.1138212e+02
   4.7528238e+02
   3.9882299e+02
   5.9500394e+02
   5.5482524e+02
   6.5228689e+02
   7.0038888e+02
   8.2313122e+02
   8.5751391e+02
   9.2053694e+02
   7.6120033e+02
   1.1715041e+03
   1.0514481e+03
   1.1990326e+03
   1.3732573e+03
   1.5231224e+03
   1.8046279e+03
   1.7397737e+03
   1.6545599e+03
  -8.8690136e+03
