  -3.8984069e+03
   8.3455594e+02
   6.9079742e+02
   6.4331758e+02
   7.2711641e+02
   5.5419390e+02
   5.1155007e+02
   3.8918491e+02
   5.2509841e+02
   4.2429059e+02
   3.3576144e+02
   2.1651096e+02
   2.3153915e+02
   2.1184601e+02
   9.9431538e+01
   1.3229574e+02
   2.6043861e+02
   1.1686015e+02
   8.8560361e+01
   1.3353924e+02
  -6.4203205e+01
   1.1933302e+02
   2.6147910e+01
  -5.4758527e+01
   1.6561371e+02
  -1.8735391e+01
  -7.1805817e+01
   1.1740243e+02
  -4.7110658e+01
  -1.6345073e+01
  -1.4030082e+02
   6.3022108e+01
  -1.1537630e+02
  -3.0849603e+02
  -2.9133709e+02
  -1.9089949e+02
  -1.9718321e+02
  -8.9188261e+01
  -1.6291464e+02
  -1.5436235e+02
  -2.9553140e+02
  -1.3642177e+02
  -3.2903347e+02
  -3.5136650e+02
  -3.2642086e+02
  -3.2319655e+02
  -2.6069357e+02
  -1.3891192e+02
  -3.3285159e+02
  -2.7951260e+02
  -3.9289494e+02
  -3.4599861e+02
  -5.4382361e+02
  -1.9236993e+02
  -3.2637590e+01
  -3.0562658e+02
  -2.3533689e+02
  -1.5676854e+02
  -3.2092151e+02
  -2.9279582e+02
  -1.5739145e+02
  -1.5370842e+02
  -3.7874671e+02
  -5.7450633e+02
  -1.7398729e+02
  -7.7189570e+01
  -2.8211318e+02
  -2.4775813e+02
  -1.8112440e+02
  -2.4121200e+02
  -2.0502093e+02
  -1.9755119e+02
  -1.5780278e+02
  -1.4177570e+02
   6.4530049e+01
   1.1411447e+02
   1.6197756e+02
  -1.0880679e+01
   7.5397528e+00
  -1.3761145e+01
   4.2216627e+01
   2.9147307e+02
   2.9400818e+02
   3.2882197e+02
   3.6091442e+02
   7.7128554e+02
   1.2549353e+03
   2.2988638e+03
   4.9710709e+03
   1.0950557e+04
   2.2900321e+04
   4.2586364e+04
   7.3418686e+04
   1.0849629e+05
   1.3714717e+05
   1.5278132e+05
   1.5696976e+05
   1.5468548e+05
   1.4667047e+05
   1.5615674e+05
   1.2576429e+05
   1.1398512e+05
   1.0388523e+05
   9.2196618e+04
   8.0347284e+04
   6.9291229e+04
   5.7124452e+04
   4.6126954e+04
   3.5961734e+04
   2.7469794e+04
   2.0249131e+04
   1.3842748e+04
   9.9816433e+03
   6.1658172e+03
   4.0312697e+03
   2.1840010e+03
   1.2400109e+03
   8.4329944e+02
   5.4586669e+02
   2.4871260e+02
   1.8583719e+02
   5.2404464e+00
   1.0792237e+02
  -3.9117031e+01
   1.7712224e+02
  -4.0359826e+01
  -3.2556322e+02
  -9.4487940e+01
  -1.6013399e+02
  -1.5850137e+02
  -4.5900842e+00
  -3.6240012e+02
  -1.3393150e+02
  -4.4218420e+02
  -1.3115822e+02
  -3.1485358e+02
  -1.8427027e+02
  -3.4140829e+02
  -2.0226764e+02
  -3.4884832e+02
  -2.7315033e+02
  -4.2917366e+02
  -3.8491833e+02
  -4.2038433e+02
  -5.2257165e+02
  -2.2648031e+02
  -3.3311029e+02
  -5.2546161e+02
  -3.2453425e+02
  -2.0032823e+02
  -2.8984353e+02
  -2.8208017e+02
  -4.1003813e+02
  -4.0671742e+02
  -2.9611805e+02
  -3.5524000e+02
  -2.0408328e+02
  -3.8964789e+02
  -4.2893383e+02
  -3.1194110e+02
  -2.8966971e+02
  -3.9119636e+01
  -1.5929090e+02
  -2.4518349e+02
  -2.3279741e+02
  -2.4013265e+02
   1.4810767e+01
  -3.1996714e+02
  -1.1946638e+02
  -1.1168695e+02
  -1.9262884e+02
  -7.1292072e+01
  -1.5267663e+02
  -7.5782515e+01
  -9.4609731e+01
   1.5841723e+01
  -2.9428152e+01
   2.7580643e+01
   1.9868108e+01
   1.0343424e+02
   5.3279049e+01
   2.1140253e+02
   2.1880467e+02
   3.9485489e+01
   3.7544498e+02
   3.2368313e+02
   2.8719996e+02
   2.6599546e+02
   2.8406963e+02
   4.2142247e+02
   5.0105398e+02
   5.1496416e+02
   4.6515301e+02
   5.9262053e+02
   5.6836672e+02
   5.2839158e+02
   7.4569511e+02
   7.1427731e+02
   5.4213818e+02
  -3.7317223e+03
