  -2.3796148e+02
   2.5743017e+01
   4.2466816e+01
   3.2209916e+01
   3.3972315e+01
   2.8754014e+01
   4.0555013e+01
   4.6375312e+01
   9.2149111e+00
   3.8073810e+01
   2.9520086e+00
   4.3849507e+01
   5.7766306e+01
   1.1702404e+01
   2.1657802e+01
   7.6325003e+00
  -9.3735017e+00
   1.2639796e+01
  -3.8327606e+01
  -1.1275708e+01
   3.1795489e+01
   2.5885987e+01
  -2.9004216e+01
   2.0124881e+01
   4.0273279e+01
   2.6440976e+01
   3.8627972e+01
   1.3834269e+01
  -1.4940134e+01
  -1.6695237e+01
   5.5689590e+00
  -1.0147545e+01
   4.4155252e+01
  -3.4522652e+01
  -2.0181256e+01
   1.6179440e+01
  -3.8440564e+01
  -5.9041269e+01
  -1.9622673e+01
   1.2815222e+01
   5.2724178e+00
   2.7489131e+00
  -4.3755292e+01
  -3.8240197e+01
   1.6294198e+01
  -3.1521069e+00
   3.4208878e+00
  -1.2986818e+01
  -2.7375223e+01
  -1.2744329e+01
  -1.4094134e+01
  -3.1424640e+01
  -1.8735846e+01
  -4.4027752e+01
  -4.7300358e+01
  -3.9553665e+01
  -5.7787671e+01
  -1.2002377e+01
   4.8022160e+00
  -2.0373891e+01
  -9.5306975e+00
  -2.3668204e+01
  -8.7864115e+00
  -3.3885319e+01
  -3.0964926e+01
  -3.0252332e+00
  -6.6240659e-02
  -1.1087948e+01
  -3.2090356e+01
   3.8926536e+01
  -1.2037272e+01
  -4.3981780e+01
  -5.3906988e+01
   2.1871040e+00
   2.0300496e+01
  -3.5668128e+00
   3.3585179e+01
   1.1756470e+01
  -1.0052939e+01
  -1.8430477e+00
  -5.3613857e+01
   4.5634634e+01
   3.9024250e+00
   8.6189516e+01
   1.2849591e+02
   3.7182160e+02
   9.5816659e+02
   2.1205309e+03
   4.1089145e+03
   5.4143174e+03
   6.3587395e+03
   7.1291810e+03
   7.8666418e+03
   8.7061219e+03
   9.1356213e+03
   9.7361400e+03
   1.0211678e+04
   1.0577235e+04
   1.0667812e+04
   1.2538408e+04
   1.0674023e+04
   1.0819657e+04
   1.0486311e+04
   1.0141984e+04
   9.8766767e+03
   9.0093884e+03
   8.4741194e+03
   7.8968697e+03
   7.2586392e+03
   6.7644281e+03
   6.0852363e+03
   5.5250638e+03
   4.8699106e+03
   4.5347767e+03
   3.9556621e+03
   3.3805668e+03
   2.9334907e+03
   2.5004340e+03
   1.8843966e+03
   1.2043785e+03
   6.2037969e+02
   2.7440018e+02
   1.1243997e+02
   5.3499052e+01
   6.3577439e+01
   3.8675125e+01
   3.5792111e+01
  -2.0716035e+00
   7.0083982e+01
  -7.4113215e-01
  -2.7546947e+01
  -3.3333461e+01
  -5.1006759e+00
   1.7151409e+01
  -1.7577206e+01
  -2.1286521e+01
   1.2023464e+01
  -1.4647251e+01
   5.7013335e+00
   1.0692181e+00
  -6.7543598e+01
  -2.0137113e+01
  -1.3711329e+01
  -3.3266245e+01
  -4.3801861e+01
  -1.9318177e+01
  -3.8815193e+01
  -1.3292910e+01
   2.0248674e+01
  -8.5190443e+01
  -2.0610259e+01
   1.4989224e+01
  -6.0391993e+01
  -2.8753910e+01
  -2.4096527e+01
  -5.8419844e+01
  -2.5723862e+01
  -3.1008579e+01
  -2.1273997e+01
  -4.3520114e+01
  -3.3746932e+01
   5.0455499e+00
  -2.7142668e+01
   9.6884138e+00
  -6.4612044e+00
   3.4084773e+00
   4.8297459e+01
   1.4205740e+01
   2.6133322e+01
   3.6080203e+01
  -1.1953616e+01
   3.0031865e+01
   1.8036646e+01
   5.0060727e+01
  -1.8958926e+00
  -4.1833212e+01
   7.2487685e+00
   2.8350049e+01
   7.4706291e+00
  -9.3894908e+00
   1.7696892e+00
  -5.0518308e+00
   2.3145949e+01
   2.3363029e+01
   7.5994083e+00
   1.8550878e+00
  -1.2869933e+01
   1.0424346e+01
   5.1737926e+01
   2.4070805e+01
   2.1422984e+01
   1.4794462e+01
   6.6185241e+01
   2.5595320e+01
   2.8024698e+01
   3.4473377e+01
   5.9413548e+00
   3.1428633e+01
  -1.9064789e+01
  -2.7453891e+02
