  -1.7448243e+03
   3.4523512e+02
   5.2148284e+02
   3.9291889e+02
   3.0954327e+02
   3.1035598e+02
   1.6135701e+02
   3.1254637e+02
   1.8892407e+02
   2.9249009e+02
   2.0724443e+02
   1.3918711e+02
   1.5531812e+02
   1.3763745e+02
   1.3514511e+02
   9.7841100e+01
   1.9772542e+02
   5.9798065e+01
   1.7405904e+02
   2.0350834e+02
   3.3145976e+01
   1.7971936e+01
   1.3998622e+02
   2.8188842e+01
   3.4579787e+01
   2.3159060e+01
   9.1926662e+01
   5.1882593e+01
  -7.9973149e+01
  -1.2064056e+02
   4.8803539e+00
   1.3589598e+01
  -8.6512830e+01
  -7.1426930e+01
  -2.3152701e+01
  -5.2690144e+01
  -1.2203926e+02
  -8.0200044e+01
  -5.8172502e+01
  -9.3956632e+01
  -8.0552433e+01
  -2.8959905e+01
  -2.0217905e+02
  -2.2120987e+02
  -7.4052353e+01
  -1.8570651e+02
  -1.7017234e+02
  -7.9449846e+01
  -1.8553902e+02
   9.5601337e+00
  -2.6015238e+02
  -2.3467657e+02
  -1.4501243e+02
  -6.4159966e+01
  -1.8511917e+02
  -2.4889005e+02
  -7.4472593e+01
  -2.0986681e+02
  -2.0507270e+02
  -5.5090266e+01
  -1.5791950e+02
  -2.5056041e+02
  -2.4201298e+02
  -1.2527723e+02
  -1.9335315e+02
  -3.3524074e+02
  -3.1094001e+02
  -2.5545094e+02
  -1.8477355e+02
  -1.5790783e+02
  -1.4885378e+02
  -1.7061140e+02
  -1.9018070e+02
  -1.3256166e+02
  -2.5375430e+02
  -2.5575861e+02
  -1.6757459e+02
  -1.3820224e+02
  -8.7641562e+01
  -1.4189256e+02
  -4.2955224e+01
  -1.0082956e+02
  -5.8515573e+01
  -1.5601325e+02
  -6.5322608e+01
  -9.0443633e+01
   4.2623670e+01
   7.3879301e+01
   1.9532326e+02
   2.5095555e+02
   2.6877617e+02
   2.3378511e+02
   5.9298238e+02
   5.4236799e+02
   9.8594192e+02
   3.9327042e+03
   1.7707655e+04
   3.5607794e+04
   4.8138121e+04
   6.9514636e+04
   7.5709340e+04
   8.8883233e+04
   1.0186831e+05
   1.1293258e+05
   1.2150504e+05
   1.2737168e+05
   1.3046152e+05
   1.3229454e+05
   1.3230775e+05
   1.2912215e+05
   1.2543974e+05
   1.1902451e+05
   1.0690548e+05
   9.4844629e+04
   8.2488969e+04
   6.9941498e+04
   6.0298215e+04
   5.1637121e+04
   4.2880215e+04
   2.9727497e+04
   1.0391967e+04
   2.5856261e+03
   1.1084733e+03
   1.0095087e+03
   5.2773250e+02
   6.0314461e+02
   2.3674505e+02
   3.3053382e+02
   1.9151091e+02
   1.8767633e+02
   1.7203008e+02
   4.5572163e+01
   8.0302571e+01
  -6.3778693e+01
   1.7328371e+01
   1.4462376e+02
  -1.6892515e+01
  -1.5220466e+01
   4.1639912e+01
  -6.8311382e+01
  -3.5074348e+01
  -3.8648985e+01
  -5.3035294e+01
  -3.2233274e+01
  -1.1424293e+02
  -1.0806425e+02
  -6.9697246e+01
  -1.5514191e+02
  -1.0539825e+02
  -1.1046626e+02
  -7.7345944e+01
  -4.8037298e+01
  -6.5403231e+00
  -1.7585502e+02
  -2.2598139e+02
  -1.7591943e+02
   2.7330859e+01
  -1.4823052e+02
  -1.5660358e+02
  -1.3778831e+02
  -1.1978471e+02
  -2.2592775e+01
  -1.8421252e+02
  -1.5364393e+02
   4.6112985e+01
  -4.0941772e+01
  -1.7480820e+02
  -7.1486301e+01
  -7.1976072e+01
   1.9722484e+01
  -8.5390630e+01
  -1.0131542e+02
   7.7948125e+01
   3.3999948e+00
  -3.2959807e+01
   8.4868720e+01
   5.9885575e+01
  -3.1909241e+01
  -4.5157293e+00
  -4.9933889e+01
   3.5836280e+01
   5.1794776e+01
  -3.6058398e+01
  -6.1723245e+01
   5.6800237e+01
  -1.4487952e+01
   2.1741219e+02
   3.5500654e+01
   2.1377745e+02
   7.3242573e+01
   1.1089603e+02
   1.6473781e+02
   2.0076791e+02
   2.3698635e+02
   1.7339312e+02
   2.5298821e+02
   3.2877163e+02
   1.8174338e+02
   1.7290346e+02
  -2.2467481e+03
