  -3.9397896e+02
   4.3974274e+01
   4.3047922e+01
   6.7241986e+01
   5.9556464e+01
   7.0991356e+01
   6.4546664e+01
   6.6222386e+01
   3.2018524e+01
   5.7935076e+01
   9.7204253e-01
   2.8129424e+01
   2.5407221e+01
  -4.1945682e+00
   2.7324058e+01
   4.7963099e+01
  -3.6277446e+01
   7.1602425e+01
  -1.8397290e+01
  -3.9276590e+01
  -5.0354750e+00
  -2.1673945e+01
   1.9807999e+01
   3.2410358e+01
   7.1133133e+01
   2.8976321e+01
  -1.2060075e+01
  -7.9760563e+00
  -2.3771623e+01
  -5.5446775e+01
   2.3998488e+01
  -2.1435834e+01
  -6.1749742e+01
   1.3056766e+01
   3.8983688e+01
   9.0310247e+00
  -1.0380122e+02
  -2.4513057e+01
  -5.8104476e+01
   9.4245205e+00
  -2.0926069e+01
   7.8437572e+00
  -2.2660022e+00
   3.7446532e+00
  -1.1242766e+00
  -7.8727916e+00
  -5.4500892e+01
   9.9142275e-01
  -1.8395848e+01
  -4.4662704e+01
  -6.3809145e+01
  -2.5835171e+01
   3.1259218e+01
   5.4740213e+00
  -4.0190761e+01
  -1.7735127e+01
  -4.3159080e+01
   3.1537383e+01
  -8.9645740e+01
  -5.1708447e+01
  -4.5650740e+01
  -1.0472618e+01
   3.5825918e+01
  -4.5755130e+01
  -1.2215764e+01
  -7.8555983e+01
   3.7224213e+01
  -1.8875176e+01
  -3.6854151e+01
  -3.8712710e+01
  -4.0450855e+01
  -2.5068585e+01
  -7.5659007e+00
  -3.9428012e+00
  -4.7199287e+01
   2.8664642e+01
   2.2648986e+01
   1.6753745e+01
  -2.7021081e+01
  -3.2675493e+01
  -2.1209490e+01
  -6.1623072e+01
   7.3083761e+01
   7.4911008e+01
  -2.7141329e+01
   7.6926748e+01
   4.9115240e+01
   1.9342415e+02
   4.2085347e+02
   8.6840320e+02
   1.7950734e+03
   3.4398639e+03
   5.8677749e+03
   9.1018063e+03
   1.2165958e+04
   1.4480230e+04
   1.6104623e+04
   1.7056136e+04
   1.7374769e+04
   1.9722523e+04
   1.6617398e+04
   1.5713392e+04
   1.4614508e+04
   1.3407743e+04
   1.2156099e+04
   1.0396575e+04
   8.5281722e+03
   6.8718894e+03
   5.3637270e+03
   3.9546850e+03
   2.9987635e+03
   2.0919624e+03
   1.3282816e+03
   8.1472132e+02
   5.0828143e+02
   2.9896195e+02
   1.6676288e+02
   4.9684235e+01
   1.1472600e+02
   4.7888181e+01
   2.4170776e+01
  -2.9426214e+01
  -4.7902789e+01
  -4.2258949e+01
  -1.6494694e+01
   1.1389975e+01
   6.3950593e+00
   8.0520558e+01
  -6.6233528e+01
   2.9132801e+01
  -8.3380456e+01
   6.2226702e+01
  -3.4045725e+01
   2.3802263e+01
  -4.4229334e+01
  -1.4140517e+01
  -2.9931285e+01
   9.3983624e+00
   3.3848424e+01
  -9.6581099e+01
  -8.5890208e+01
  -7.0078901e+01
  -1.0814718e+02
  -3.2095045e+01
  -5.7922494e+01
  -3.2629528e+01
  -4.6216148e+01
  -2.4682353e+01
   5.9718569e+00
  -7.3253518e+01
   8.0641521e+01
  -7.0343025e+01
  -8.1207156e+01
  -4.9950872e+01
   3.7425827e+01
   1.1922941e+01
  -3.0459531e+01
  -8.2721588e+01
  -5.2863230e+01
  -6.8884457e+01
  -3.6785270e+01
  -6.3565667e+01
  -1.0225650e+01
  -1.5765218e+01
  -5.4184372e+01
  -5.9483110e+01
  -6.3661434e+01
   1.7280658e+01
  -2.2656836e+01
   4.7526084e+01
   6.3829420e+01
   2.2253170e+01
  -4.7202664e+01
  -9.5380845e+00
   5.3246910e+01
   2.4152320e+01
  -4.8218556e+00
  -6.7561640e-01
  -2.7408962e+01
   2.9978106e+01
   7.5485590e+01
   1.1134885e+00
   7.2861802e+01
   6.8730530e+01
   1.0719673e+01
  -1.1170770e+01
   2.3059203e+01
   3.9409590e+01
   5.0880392e+01
   6.6471609e+01
   5.6183241e+01
   2.3015287e+01
  -2.6032251e+01
   2.8040625e+01
   8.5233916e+01
   5.3547621e+01
   6.5981742e+01
   9.2536277e+01
   4.1211227e+01
  -3.9599341e+02
