  -8.4384828e+02
   3.0462393e+02
   2.0519971e+02
   1.9887905e+02
   1.1566194e+02
   1.9454840e+02
   1.0053841e+02
   1.0763198e+02
   1.0982911e+02
   1.2412980e+02
  -1.2465956e+01
   6.3041849e+01
   8.3653212e+01
   5.7368134e+01
   5.2186614e+01
   1.2210865e+02
   7.4134250e+01
   3.1263405e+01
   2.4496120e+01
   5.8832392e+01
   1.5127222e+02
   1.1681561e+02
   1.3746256e+02
   8.6213068e+01
   2.7067133e+01
   1.2024757e+01
  -3.5914061e+01
   5.7250680e+01
   4.7518979e+01
  -4.4109163e+01
   1.0636625e+02
  -3.3054773e+01
  -1.5372239e+01
  -6.0586148e+01
  -4.6696497e+01
   9.2967112e+00
  -4.5606522e+01
  -9.8406196e+01
  -4.9102312e+01
  -7.4694869e+01
  -1.9518387e+02
  -1.6056931e+02
  -3.9851190e+01
  -1.2402951e+02
  -2.7104278e+01
  -8.3075484e+01
  -9.5943132e+01
  -4.2707221e+01
  -3.0367752e+01
  -7.3924724e+01
  -2.2237814e+02
  -3.0727994e+01
  -7.3974290e+01
  -2.0111703e+02
  -5.1562084e+00
  -1.5609183e+02
  -2.0492389e+02
  -1.0065240e+02
  -4.5277343e+01
  -8.2798730e+01
  -1.7121656e+02
  -9.7530829e+01
  -1.2774154e+02
  -4.2848694e+01
  -8.8852289e+01
  -1.4475233e+02
  -2.2454880e+02
  -9.5241722e+01
  -1.9383108e+02
  -1.0031689e+02
  -9.4699129e+01
  -6.8977814e+01
  -1.1715294e+02
  -6.0224509e+01
  -6.2192519e+01
  -3.9056970e+01
  -7.1817863e+01
  -8.3475197e+01
  -1.4702897e+02
  -7.1479190e+01
  -1.5782585e+02
   9.3105072e-01
  -5.4208491e+01
  -1.1424447e+02
  -9.7176899e+01
   4.0994235e+01
  -6.1731073e+01
  -6.3528223e+00
   1.3212899e+02
   1.1771435e+02
   1.5840328e+02
   1.4819577e+02
   1.4909181e+02
   2.9709141e+02
   3.8919457e+02
   1.0574013e+03
   5.7507116e+03
   1.5195125e+04
   2.1524643e+04
   3.2596264e+04
   3.5231988e+04
   4.2560816e+04
   4.9375748e+04
   5.5616783e+04
   6.0752922e+04
   6.4603164e+04
   6.6392510e+04
   6.8248959e+04
   6.8436512e+04
   6.7479169e+04
   6.5638929e+04
   6.2035793e+04
   5.7423760e+04
   5.0658831e+04
   4.4255005e+04
   3.8304283e+04
   3.2083664e+04
   2.7774149e+04
   2.3573738e+04
   1.7820430e+04
   7.9812258e+03
   1.7641250e+03
   7.0212781e+02
   3.1523417e+02
   3.5444408e+02
   2.5775756e+02
   1.2217459e+02
   6.0695178e+01
   9.6319328e+01
   3.2047035e+01
   1.2587830e+02
   3.2813127e+01
   6.8851510e+01
   7.6993452e+01
   7.0238952e+01
   8.5880107e+00
   1.1304063e+02
  -9.4031962e+00
  -3.8743462e+01
  -5.1980169e+01
  -6.6113318e+01
  -1.3314291e+02
  -4.1068940e+01
  -1.1891413e+01
  -1.6610328e+01
  -9.2225684e+01
  -8.7737481e+01
  -1.4414572e+02
  -4.9450401e+01
  -8.0651523e+01
  -6.3749087e+01
  -7.0743092e+01
   3.4366461e+01
  -1.3142043e+02
  -2.8103757e+01
  -6.6683528e+01
  -5.3159741e+01
  -6.7532395e+01
  -9.7801491e+01
  -5.7967028e+01
  -4.7029007e+01
  -1.3798743e+02
  -7.3842288e+01
  -2.9593592e+01
  -2.9241336e+01
  -7.9785522e+01
   6.7738499e+00
  -7.6563219e+01
  -1.0679673e+02
   7.0733179e+00
   3.5046924e+01
   6.1240891e+00
  -9.6951876e+00
  -5.9410906e+01
   5.4976935e+01
  -1.3531667e+01
  -5.9936709e+01
   7.3761807e+01
   6.5638810e+00
   9.8469514e+01
   9.1478705e+01
   2.6591455e+01
  -4.6192237e+01
   1.2127630e+01
   1.5551056e+01
   5.4078039e+01
   4.6708582e+01
   4.6442683e+01
   9.2803419e+00
   5.2221560e+01
   4.3266336e+01
   1.4641467e+02
   1.0666564e+01
   1.3102202e+02
   1.4048103e+02
   8.9043595e+01
   6.0709723e+01
   2.0047941e+02
   1.0935265e+02
  -1.1366705e+03
