  -2.4460621e+03
   2.9382376e+02
   3.3190643e+02
   3.4218587e+02
   2.9466208e+02
   3.8733507e+02
   3.0720484e+02
   2.9927138e+02
   2.4353470e+02
   3.0699479e+02
   2.4465166e+02
   1.4250530e+02
   3.8855572e+02
   2.4080291e+02
   1.4224688e+02
   1.8988763e+02
   6.7725146e+01
   5.2759441e+01
   7.2990512e+01
   1.2341836e+02
   1.9504298e+02
   8.2864377e+01
   9.8825491e+00
   8.0974969e+00
   4.7509220e+01
   1.2117719e+01
   4.3922993e+01
   1.8192504e+02
  -9.8761334e+00
   1.7519467e+01
  -1.1088816e+02
  -4.5099007e+01
   1.6886919e+01
  -1.8393038e+02
  -1.1055090e+02
  -9.7464947e-01
  -2.3020162e+02
  -2.0231818e+01
  -1.2065240e+01
  -1.6070189e+02
  -2.3814176e+02
  -9.3384852e+01
  -4.8431171e+01
  -2.0028072e+02
  -2.0293348e+02
   8.4610521e+01
  -2.1064870e+02
  -1.2571114e+02
  -1.0357681e+02
  -1.1524570e+02
  -3.0571782e+02
  -2.3699316e+02
  -1.9207172e+02
  -2.2595351e+02
  -3.0563853e+02
  -2.3312677e+02
  -1.7541823e+02
  -3.7512922e+01
  -2.6641084e+02
  -1.3711197e+02
   5.3836633e+00
  -2.9392392e+02
  -2.4503474e+02
  -1.4394877e+02
  -3.0166603e+02
  -1.1318652e+02
  -2.1051023e+02
  -1.6663717e+02
  -1.4056733e+02
  -2.6730071e+02
  -1.1083732e+02
  -2.0817715e+02
  -2.6632021e+02
  -2.3826649e+02
  -1.3201600e+02
  -1.8568732e+01
  -1.7792469e+02
   7.9161300e+00
   3.0953724e+01
  -4.8119063e+00
   1.1161924e+02
   2.8124716e+02
   5.1707185e+02
   9.1809333e+02
   2.2513116e+03
   5.9467266e+03
   1.5535338e+04
   2.8000147e+04
   3.7643152e+04
   4.4738354e+04
   4.9528753e+04
   5.4397349e+04
   5.9112141e+04
   6.4152131e+04
   6.8692317e+04
   7.3366699e+04
   7.6595279e+04
   8.0005055e+04
   8.2912028e+04
   9.5545198e+04
   8.4807565e+04
   8.5879128e+04
   8.3895889e+04
   8.2795846e+04
   7.9762999e+04
   7.7119350e+04
   7.3486897e+04
   6.9693641e+04
   6.5396582e+04
   6.1991720e+04
   5.8275054e+04
   5.4555585e+04
   5.1127313e+04
   4.5832238e+04
   4.0165360e+04
   3.4571678e+04
   2.9130193e+04
   2.3876905e+04
   1.7417813e+04
   1.0022919e+04
   4.6882209e+03
   1.9517198e+03
   8.9141550e+02
   4.4630799e+02
   3.2839725e+02
   2.9683290e+01
   1.0416610e+02
   8.4569152e-01
  -7.9277945e+01
   9.6795194e+01
  -1.0934891e+01
  -1.8146820e+02
  -4.4804736e+01
  -9.4449567e-01
  -8.3887480e+01
  -1.3863369e+02
  -1.6518312e+02
  -3.4753578e+02
  -1.9869166e+02
  -2.9865077e+02
  -1.1741310e+02
  -8.7978657e+01
  -1.6934744e+02
  -7.7519443e+01
  -2.0494673e+01
  -2.1327313e+02
  -3.0485481e+02
  -2.9239711e+01
  -1.5342784e+02
  -1.3041919e+02
  -1.0421377e+02
  -1.4181157e+02
  -1.5821260e+02
  -1.2641685e+02
  -8.8424328e+01
  -1.8235029e+01
  -7.6848954e+01
  -4.7266104e+01
  -9.7486479e+01
  -2.1051008e+02
   3.6663098e+01
  -1.5966951e+01
  -2.1400224e+01
  -1.1363672e+02
  -1.2267644e+02
  -1.7519391e+01
  -4.0165562e+01
  -1.0614958e+01
  -1.5986758e+02
  -8.6923424e+01
  -2.5178249e+02
  -2.3444789e+01
   2.1089692e+01
   8.0820948e+01
  -6.8251020e+01
  -1.6126214e+01
   5.3195369e+01
   6.9713727e+01
   2.6142886e+02
   1.3434077e+02
   1.5444945e+02
   6.7754911e+01
   5.2257146e+01
   1.4095616e+02
   7.4851942e+01
   4.5944503e+01
  -3.7661612e+00
   2.7771995e+02
   6.0402837e+01
   2.3428250e+02
   3.5735894e+02
   2.2763215e+02
   2.5410214e+02
   8.2768903e+01
   2.7063244e+02
   3.6969276e+02
   3.1094985e+02
   2.7340371e+02
   3.1605435e+02
  -2.6740982e+03
