  -2.9966243e+03
   4.8576032e+02
   5.4218008e+02
   6.6863495e+02
   6.9512493e+02
   5.0665001e+02
   4.5221019e+02
   3.3080549e+02
   2.6643589e+02
   3.8310139e+02
   4.0480200e+02
   1.4953772e+02
   2.0230854e+02
   2.2311447e+02
   1.2895551e+02
   4.8316520e+00
   9.8742900e+01
   9.3689254e+01
   1.2167071e+02
   1.1668728e+02
  -1.4626105e+02
   1.1782573e+02
  -2.5052382e+01
  -1.4389539e+02
   1.4296706e+01
  -6.6476090e+01
  -5.4213781e+01
  -7.6916365e+01
   1.6141616e+02
  -1.5621622e+02
  -1.2881348e+02
  -1.4375642e+01
  -3.1990270e+02
  -1.0539464e+02
  -3.2185148e+02
  -3.9273220e+01
  -2.6665985e+02
  -2.9501137e+02
  -2.4632779e+02
  -2.3560910e+02
  -4.2485530e+02
  -3.9006640e+02
  -2.2724239e+02
  -2.5938328e+02
  -4.8748906e+02
  -3.3255974e+02
  -1.9359530e+02
  -7.7595765e+01
  -2.9556112e+02
  -2.2449137e+02
  -3.6538651e+02
  -1.2424655e+02
  -2.9907148e+02
  -2.2186131e+02
  -2.3661602e+02
  -2.7333564e+02
  -2.9402014e+02
  -4.7669544e+01
  -4.7028384e+02
  -2.5286303e+02
  -2.6640711e+02
  -1.3991608e+02
  -1.3638995e+02
  -2.3182872e+02
  -1.3723238e+02
  -1.8600927e+01
  -4.0293437e+02
  -1.3523271e+02
  -2.5749594e+02
  -3.5724070e+01
  -1.4691709e+02
  -4.0750056e+00
   1.7780219e+02
   7.4714484e+01
   8.8661888e+01
  -1.0135560e+02
  -1.7533799e+02
   1.2471474e+02
   7.1802565e+01
   3.3892550e+02
   1.5208354e+02
   5.0276687e+01
   3.5450494e+02
   6.0376830e+02
   8.9506676e+02
   2.0154003e+03
   3.4187690e+03
   6.0341728e+03
   1.1263612e+04
   2.0984086e+04
   3.7427595e+04
   6.2354139e+04
   9.6767718e+04
   1.4189033e+05
   1.8837198e+05
   2.2471667e+05
   2.3747139e+05
   2.2491614e+05
   1.9726493e+05
   1.8312376e+05
   1.2720762e+05
   9.8895512e+04
   7.6277442e+04
   5.6828408e+04
   4.1515408e+04
   2.9459444e+04
   1.9956515e+04
   1.3040621e+04
   8.2537618e+03
   4.9559379e+03
   2.6661491e+03
   1.4093954e+03
   5.3867688e+02
   4.1499342e+02
   3.2934507e+02
   6.0573183e+02
   2.9615369e+02
   5.0610658e+01
   2.7910273e+02
   2.2662991e+02
   1.0119220e+02
   2.0789590e+01
  -6.3577912e+01
   1.7808969e+02
  -1.3020760e+02
  -5.4469780e+01
  -9.3696857e+01
  -3.3088883e+02
  -2.2804569e+02
  -1.1116745e+02
   2.7458955e+00
  -1.6330565e+02
  -3.2032209e+02
  -1.8330343e+02
  -3.2324965e+02
  -9.4160776e+01
  -4.2203679e+02
  -2.9987770e+02
  -2.8268350e+02
  -4.8445420e+02
  -2.8118979e+02
  -2.1389028e+02
  -5.1155566e+02
  -4.4418593e+02
  -5.3778110e+02
  -2.0534116e+02
  -3.1786611e+02
  -4.2535596e+02
  -3.9481070e+02
  -4.2023034e+02
  -2.6161487e+02
  -3.3896429e+02
  -4.2927861e+02
  -4.3555782e+02
  -2.1680193e+02
  -2.5501093e+02
  -2.3718482e+02
  -1.9532361e+02
  -3.6642729e+02
  -3.7349586e+02
  -2.4252933e+02
  -2.9152769e+02
  -3.9749095e+02
  -3.2341910e+02
  -1.8131214e+02
  -1.3217008e+02
  -3.0499291e+02
  -1.9078064e+02
  -8.8533259e+01
  -2.2250772e+01
  -2.1933180e+01
  -1.1958048e+02
  -1.6519268e+02
  -1.1276976e+02
  -6.5311747e+01
   4.3181376e+01
   1.6870961e+02
   1.9272941e+01
   1.1587138e+02
   4.5504931e+01
   5.1173585e+01
   2.4887735e+02
   2.1561621e+02
   2.0039018e+02
   2.7119926e+02
   6.6043447e+01
   2.9292274e+02
   2.6383714e+02
   5.0478664e+02
   3.9677125e+02
   4.4279096e+02
   3.2884578e+02
   4.3993571e+02
   4.8706075e+02
   4.8022089e+02
   5.8941613e+02
   5.8064648e+02
   6.6891194e+02
   7.6721251e+02
  -2.9104518e+03
